

using namespace oomph;

namespace oomph
{

  //============================================================
  /// Define the weights at each gauss point for orders up to 50
  /// (??ds only for 1D at the moment).
  //============================================================
  template<unsigned DIM> GaussWeights<DIM>::GaussWeights()
  {

    if(DIM == 1)
      {
	// Set the size of the vectors and vector of vectors
	Weights.resize(48);
	for(unsigned i=0; i<Weights.size();i++)
	  Weights[i].resize(i);

	// Fill in the values
	Weights[0] = {1.0,1.0};
	Weights[1] = {0.555556,0.888889,0.555556};
	Weights[2] = {0.347855,0.652145,0.652145,0.347855};
	Weights[3] = {0.236927,0.478629,0.568889,0.478629,0.236927};
	Weights[4] = {0.171324,0.360762,0.467914,0.467914,0.360762,0.171324};
	Weights[5] = {0.129485,0.279705,0.38183,0.417959,0.38183,0.279705,0.129485};
	Weights[6] = {0.101229,0.222381,0.313707,0.362684,0.362684,0.313707,0.222381,0.101229};
	Weights[7] = {0.0812744,0.180648,0.260611,0.312347,0.330239,0.312347,0.260611,0.180648,0.0812744};
	Weights[8] = {0.0666713,0.149451,0.219086,0.269267,0.295524,0.295524,0.269267,0.219086,0.149451,0.0666713};
	Weights[9] = {0.0556686,0.12558,0.18629,0.233194,0.262805,0.272925,0.262805,0.233194,0.18629,0.12558,0.0556686};
	Weights[10] = {0.0471753,0.106939,0.160078,0.203167,0.233493,0.249147,0.249147,0.233493,0.203167,0.160078,0.106939,0.0471753};
	Weights[11] = {0.040484,0.0921215,0.138874,0.178146,0.207816,0.226283,0.232552,0.226283,0.207816,0.178146,0.138874,0.0921215,0.040484};
	Weights[12] = {0.0351195,0.0801581,0.121519,0.157203,0.185538,0.205198,0.215264,0.215264,0.205198,0.185538,0.157203,0.121519,0.0801581,0.0351195};
	Weights[13] = {0.0307532,0.070366,0.107159,0.139571,0.166269,0.186161,0.198431,0.202578,0.198431,0.186161,0.166269,0.139571,0.107159,0.070366,0.0307532};
	Weights[14] = {0.0271525,0.0622535,0.0951585,0.124629,0.149596,0.169157,0.182603,0.189451,0.189451,0.182603,0.169157,0.149596,0.124629,0.0951585,0.0622535,0.0271525};
	Weights[15] = {0.0241483,0.0554595,0.0850361,0.111884,0.135136,0.154046,0.168004,0.176563,0.179446,0.176563,0.168004,0.154046,0.135136,0.111884,0.0850361,0.0554595,0.0241483};
	Weights[16] = {0.021616,0.0497145,0.0764257,0.100942,0.122555,0.140643,0.154685,0.164276,0.169142,0.169142,0.164276,0.154685,0.140643,0.122555,0.100942,0.0764257,0.0497145,0.021616};
	Weights[17] = {0.0194618,0.0448142,0.0690445,0.09149,0.111567,0.128754,0.142607,0.152766,0.158969,0.161054,0.158969,0.152766,0.142607,0.128754,0.111567,0.09149,0.0690445,0.0448142,0.0194618};
	Weights[18] = {0.017614,0.0406014,0.062672,0.0832767,0.10193,0.118195,0.131689,0.142096,0.149173,0.152753,0.152753,0.149173,0.142096,0.131689,0.118195,0.10193,0.0832767,0.062672,0.0406014,0.017614};
	Weights[19] = {0.0160172,0.0369538,0.0571344,0.0761001,0.0934444,0.108797,0.121831,0.132269,0.139887,0.144524,0.146081,0.144524,0.139887,0.132269,0.121831,0.108797,0.0934444,0.0761001,0.0571344,0.0369538,0.0160172};
	Weights[20] = {0.014628,0.0337749,0.0522933,0.0697965,0.0859416,0.100414,0.112932,0.123252,0.131174,0.136541,0.139252,0.139252,0.136541,0.131174,0.123252,0.112932,0.100414,0.0859416,0.0697965,0.0522933,0.0337749,0.014628};
	Weights[21] = {0.0134119,0.030988,0.0480377,0.0642324,0.0792814,0.0929158,0.104892,0.114997,0.123049,0.128906,0.132462,0.133655,0.132462,0.128906,0.123049,0.114997,0.104892,0.0929158,0.0792814,0.0642324,0.0480377,0.030988,0.0134119};
	Weights[22] = {0.0123412,0.0285314,0.0442774,0.0592986,0.0733465,0.0861902,0.0976187,0.107444,0.115506,0.12167,0.125837,0.127938,0.127938,0.125837,0.12167,0.115506,0.107444,0.0976187,0.0861902,0.0733465,0.0592986,0.0442774,0.0285314,0.0123412};
	Weights[23] = {0.0113938,0.026355,0.0409392,0.0549047,0.0680383,0.0801407,0.0910283,0.100536,0.10852,0.114858,0.119456,0.122242,0.123176,0.122242,0.119456,0.114858,0.10852,0.100536,0.0910283,0.0801407,0.0680383,0.0549047,0.0409392,0.026355,0.0113938};
	Weights[24] = {0.0105514,0.0244179,0.0379624,0.0509758,0.063274,0.0746841,0.0850459,0.0942138,0.102059,0.108472,0.113362,0.11666,0.118321,0.118321,0.11666,0.113362,0.108472,0.102059,0.0942138,0.0850459,0.0746841,0.063274,0.0509758,0.0379624,0.0244179,0.0105514};
	Weights[25] = {0.009799,0.0226862,0.0352971,0.0474494,0.0589835,0.0697488,0.0796049,0.0884232,0.0960887,0.102502,0.107578,0.111252,0.113476,0.114221,0.113476,0.111252,0.107578,0.102502,0.0960887,0.0884232,0.0796049,0.0697488,0.0589835,0.0474494,0.0352971,0.0226862,0.009799};
	Weights[26] = {0.00912428,0.0211321,0.0329014,0.0442729,0.0551073,0.0652729,0.0746462,0.0831134,0.0905717,0.0969307,0.102113,0.106056,0.108711,0.110047,0.110047,0.108711,0.106056,0.102113,0.0969307,0.0905717,0.0831134,0.0746462,0.0652729,0.0551073,0.0442729,0.0329014,0.0211321,0.00912428};
	Weights[27] = {0.0085169,0.0197321,0.0307405,0.0414021,0.0515948,0.0612031,0.0701179,0.0782383,0.0854723,0.0917378,0.0969638,0.101091,0.104073,0.105876,0.106479,0.105876,0.104073,0.101091,0.0969638,0.0917378,0.0854723,0.0782383,0.0701179,0.0612031,0.0515948,0.0414021,0.0307405,0.0197321,0.0085169};
	Weights[28] = {0.00796819,0.0184665,0.0287847,0.0387992,0.0484027,0.0574932,0.0659742,0.073756,0.0807559,0.0868998,0.0921225,0.0963687,0.0995934,0.101762,0.102853,0.102853,0.101762,0.0995934,0.0963687,0.0921225,0.0868998,0.0807559,0.073756,0.0659742,0.0574932,0.0484027,0.0387992,0.0287847,0.0184665,0.00796819};
	Weights[29] = {0.00747083,0.0173186,0.027009,0.0364323,0.0454937,0.0541031,0.0621748,0.0696286,0.0763904,0.082393,0.0875767,0.0918901,0.0952902,0.0977433,0.099225,0.0997205,0.099225,0.0977433,0.0952902,0.0918901,0.0875767,0.082393,0.0763904,0.0696286,0.0621748,0.0541031,0.0454937,0.0364323,0.027009,0.0173186,0.00747083};
	Weights[30] = {0.00701861,0.0162744,0.0253921,0.0342739,0.0428359,0.0509981,0.0586841,0.0658222,0.0723458,0.0781939,0.0833119,0.0876521,0.0911739,0.0938444,0.0956387,0.0965401,0.0965401,0.0956387,0.0938444,0.0911739,0.0876521,0.0833119,0.0781939,0.0723458,0.0658222,0.0586841,0.0509981,0.0428359,0.0342739,0.0253921,0.0162744,0.00701861};
	Weights[31] = {0.00660623,0.0153217,0.0239155,0.0323004,0.0404015,0.0481477,0.0554708,0.0623065,0.0685946,0.0742799,0.0793124,0.0836479,0.0872483,0.090082,0.092124,0.0933564,0.0937684,0.0933564,0.092124,0.090082,0.0872483,0.0836479,0.0793124,0.0742799,0.0685946,0.0623065,0.0554708,0.0481477,0.0404015,0.0323004,0.0239155,0.0153217,0.00660623};
	Weights[32] = {0.00622914,0.0144502,0.0225637,0.0304914,0.0381666,0.0455256,0.0525074,0.0590541,0.0651115,0.0706294,0.075562,0.0798684,0.0835131,0.0864657,0.0887019,0.090203,0.0909567,0.0909567,0.090203,0.0887019,0.0864657,0.0835131,0.0798684,0.075562,0.0706294,0.0651115,0.0590541,0.0525074,0.0455256,0.0381666,0.0304914,0.0225637,0.0144502,0.00622914};
	Weights[33] = {0.00588343,0.0136508,0.021323,0.0288293,0.0361101,0.0431084,0.0497694,0.0560408,0.0618737,0.0672223,0.0720448,0.0763035,0.0799649,0.0830006,0.0853867,0.0871044,0.0881405,0.0884868,0.0881405,0.0871044,0.0853867,0.0830006,0.0799649,0.0763035,0.0720448,0.0672223,0.0618737,0.0560408,0.0497694,0.0431084,0.0361101,0.0288293,0.021323,0.0136508,0.00588343};
	Weights[34] = {0.00556572,0.0129159,0.0201815,0.0272986,0.0342138,0.0408758,0.0472351,0.0532447,0.0588601,0.0640398,0.0687453,0.0729419,0.0765984,0.0796878,0.0821873,0.0840782,0.0853467,0.0859833,0.0859833,0.0853467,0.0840782,0.0821873,0.0796878,0.0765984,0.0729419,0.0687453,0.0640398,0.0588601,0.0532447,0.0472351,0.0408758,0.0342138,0.0272986,0.0201815,0.0129159,0.00556572};
	Weights[35] = {0.00527306,0.0122388,0.019129,0.025886,0.0324616,0.0388096,0.0448854,0.0506463,0.056052,0.0610645,0.0656487,0.0697725,0.0734068,0.0765262,0.0791089,0.0811366,0.0825953,0.0834746,0.0837684,0.0834746,0.0825953,0.0811366,0.0791089,0.0765262,0.0734068,0.0697725,0.0656487,0.0610645,0.056052,0.0506463,0.0448854,0.0388096,0.0324616,0.025886,0.019129,0.0122388,0.00527306};
	Weights[36] = {0.00500288,0.0116134,0.0181566,0.0245797,0.0308395,0.0368941,0.0427032,0.0482281,0.053432,0.0582804,0.0627409,0.0667839,0.0703825,0.0735127,0.0761537,0.0782878,0.079901,0.0809825,0.081525,0.081525,0.0809825,0.079901,0.0782878,0.0761537,0.0735127,0.0703825,0.0667839,0.0627409,0.0582804,0.053432,0.0482281,0.0427032,0.0368941,0.0308395,0.0245797,0.0181566,0.0116134,0.00500288};
	Weights[37] = {0.00475294,0.0110348,0.0172562,0.0233694,0.029335,0.0351151,0.0406733,0.0459743,0.0509847,0.0556727,0.0600087,0.0639654,0.0675176,0.070643,0.0733218,0.0755369,0.0772746,0.0785236,0.0792762,0.0795276,0.0792762,0.0785236,0.0772746,0.0755369,0.0733218,0.070643,0.0675176,0.0639654,0.0600087,0.0556727,0.0509847,0.0459743,0.0406733,0.0351151,0.029335,0.0233694,0.0172562,0.0110348,0.00475294};
	Weights[38] = {0.00452128,0.0104983,0.0164211,0.0222458,0.027937,0.0334602,0.0387822,0.0438709,0.0486958,0.0532278,0.0574398,0.0613062,0.064804,0.067912,0.0706116,0.0728866,0.0747232,0.0761104,0.0770398,0.0775059,0.0775059,0.0770398,0.0761104,0.0747232,0.0728866,0.0706116,0.067912,0.064804,0.0613062,0.0574398,0.0532278,0.0486958,0.0438709,0.0387822,0.0334602,0.027937,0.0222458,0.0164211,0.0104983,0.00452128};
	Weights[39] = {0.00430614,0.00999994,0.0156449,0.0212011,0.0266359,0.0319182,0.0370177,0.0419052,0.0465526,0.0509335,0.0550225,0.0587964,0.0622335,0.0653142,0.0680207,0.0703377,0.0722517,0.0737519,0.0748296,0.0754787,0.0756955,0.0754787,0.0748296,0.0737519,0.0722517,0.0703377,0.0680207,0.0653142,0.0622335,0.0587964,0.0550225,0.0509335,0.0465526,0.0419052,0.0370177,0.0319182,0.0266359,0.0212011,0.0156449,0.00999994,0.00430614};
	Weights[40] = {0.004106,0.00953622,0.0149224,0.0202279,0.025423,0.0304792,0.0353691,0.0400657,0.0445436,0.0487781,0.0527463,0.0564264,0.0597983,0.0628436,0.0655456,0.0678897,0.069863,0.0714547,0.0726562,0.0734608,0.0738642,0.0738642,0.0734608,0.0726562,0.0714547,0.069863,0.0678897,0.0655456,0.0628436,0.0597983,0.0564264,0.0527463,0.0487781,0.0445436,0.0400657,0.0353691,0.0304792,0.025423,0.0202279,0.0149224,0.00953622,0.004106};
	Weights[41] = {0.00391949,0.009104,0.0142488,0.0193199,0.0242905,0.0291344,0.0338265,0.0383422,0.0426581,0.0467515,0.0506012,0.0541871,0.0574905,0.0604941,0.0631824,0.0655412,0.0675584,0.0692233,0.0705274,0.0714637,0.0720275,0.0722158,0.0720275,0.0714637,0.0705274,0.0692233,0.0675584,0.0655412,0.0631824,0.0604941,0.0574905,0.0541871,0.0506012,0.0467515,0.0426581,0.0383422,0.0338265,0.0291344,0.0242905,0.0193199,0.0142488,0.009104,0.00391949};
	Weights[42] = {0.0037454,0.00870048,0.0136196,0.0184715,0.0232315,0.0278758,0.0323812,0.0367253,0.0408865,0.044844,0.048578,0.0520701,0.0553027,0.0582599,0.0609267,0.0632901,0.0653381,0.0670606,0.0684491,0.0694965,0.0701977,0.0705492,0.0705492,0.0701977,0.0694965,0.0684491,0.0670606,0.0653381,0.0632901,0.0609267,0.0582599,0.0553027,0.0520701,0.048578,0.044844,0.0408865,0.0367253,0.0323812,0.0278758,0.0232315,0.0184715,0.0136196,0.00870048,0.0037454};
	Weights[43] = {0.00358266,0.00832319,0.0130311,0.0176775,0.0222398,0.0266962,0.0310254,0.0352067,0.0392202,0.0430469,0.0466684,0.0500675,0.053228,0.0561349,0.0587742,0.0611335,0.0632014,0.0649682,0.0664253,0.067566,0.0683846,0.0688773,0.0690418,0.0688773,0.0683846,0.067566,0.0664253,0.0649682,0.0632014,0.0611335,0.0587742,0.0561349,0.053228,0.0500675,0.0466684,0.0430469,0.0392202,0.0352067,0.0310254,0.0266962,0.0222398,0.0176775,0.0130311,0.00832319,0.00358266};
	Weights[44] = {0.0034303,0.0079699,0.0124799,0.0169335,0.02131,0.0255893,0.0297518,0.0337786,0.0376513,0.0413522,0.0448644,0.0481719,0.0512596,0.0541134,0.0567203,0.0590684,0.061147,0.0629466,0.064459,0.0656773,0.0665959,0.0672106,0.0675187,0.0675187,0.0672106,0.0665959,0.0656773,0.064459,0.0629466,0.061147,0.0590684,0.0567203,0.0541134,0.0512596,0.0481719,0.0448644,0.0413522,0.0376513,0.0337786,0.0297518,0.0255893,0.02131,0.0169335,0.0124799,0.0079699,0.0034303};
	Weights[45] = {0.00328745,0.00763862,0.0119628,0.0162353,0.0204369,0.0245492,0.0285542,0.0324342,0.0361725,0.0397526,0.0431588,0.0463764,0.0493911,0.0521899,0.0547605,0.0570916,0.059173,0.0609958,0.0625517,0.0638342,0.0648376,0.0655574,0.0659905,0.0661351,0.0659905,0.0655574,0.0648376,0.0638342,0.0625517,0.0609958,0.059173,0.0570916,0.0547605,0.0521899,0.0493911,0.0463764,0.0431588,0.0397526,0.0361725,0.0324342,0.0285542,0.0245492,0.0204369,0.0162353,0.0119628,0.00763862,0.00328745};
	Weights[46] = {0.00315335,0.00732755,0.0114772,0.0155793,0.0196162,0.0235708,0.0274265,0.0311672,0.0347772,0.0382414,0.0415451,0.0446746,0.0476167,0.050359,0.0528902,0.0551995,0.0572773,0.0591148,0.0607044,0.0620394,0.0631142,0.0639242,0.0644662,0.0647377,0.0647377,0.0644662,0.0639242,0.0631142,0.0620394,0.0607044,0.0591148,0.0572773,0.0551995,0.0528902,0.050359,0.0476167,0.0446746,0.0415451,0.0382414,0.0347772,0.0311672,0.0274265,0.0235708,0.0196162,0.0155793,0.0114772,0.00732755,0.00315335};
	Weights[47] = {0.00302728,0.0070351,0.0110206,0.0149621,0.0188436,0.0226492,0.0263636,0.0299719,0.0334595,0.0368123,0.0400169,0.0430604,0.0459305,0.0486157,0.0511051,0.0533887,0.0554573,0.0573027,0.0589173,0.0602946,0.0614292,0.0623164,0.0629527,0.0633355,0.0634633,0.0633355,0.0629527,0.0623164,0.0614292,0.0602946,0.0589173,0.0573027,0.0554573,0.0533887,0.0511051,0.0486157,0.0459305,0.0430604,0.0400169,0.0368123,0.0334595,0.0299719,0.0263636,0.0226492,0.0188436,0.0149621,0.0110206,0.0070351,0.00302728};
	Weights[48] = {0.00290862,0.0067598,0.0105905,0.0143808,0.0181156,0.0217802,0.0253607,0.028843,0.0322137,0.0354598,0.0385688,0.0415285,0.0443275,0.0469551,0.0494009,0.0516557,0.0537106,0.0555577,0.0571899,0.0586008,0.0597851,0.060738,0.0614559,0.0619361,0.0621766,0.0621766,0.0619361,0.0614559,0.060738,0.0597851,0.0586008,0.0571899,0.0555577,0.0537106,0.0516557,0.0494009,0.0469551,0.0443275,0.0415285,0.0385688,0.0354598,0.0322137,0.028843,0.0253607,0.0217802,0.0181156,0.0143808,0.0105905,0.0067598,0.00290862};
      }
    else
      {
	throw OomphLibError("Variable order weights of this dimension are not implemented.",
			    "GaussWeights::GaussWeights", OOMPH_EXCEPTION_LOCATION);
      }
  }


  //============================================================
  /// Define the knots for Gaussian quadrature of up to order
  /// 50 (??ds only 1D at the moment).
  //============================================================
  template<unsigned DIM> GaussKnots<DIM>::GaussKnots()
  {
    if(DIM == 1)
      {
	// Set the size of the order vector, knot vectors and location vectors.
	Knots.resize(48);
	for(unsigned i=0; i<Knots.size();i++)
	  {
	    Knots[i].resize(i);
	    for(unsigned j=0; j<Knots[i].size();i++)
	      Knots[i][j].resize(DIM);
	  }

	// Fill in the values
	Knots[0] = {{-0.57735},{0.57735}};
	Knots[1] = {{-0.774597},{0},{0.774597}};
	Knots[2] = {{-0.861136},{-0.339981},{0.339981},{0.861136}};
	Knots[3] = {{-0.90618},{-0.538469},{0},{0.538469},{0.90618}};
	Knots[4] = {{-0.93247},{-0.661209},{-0.238619},{0.238619},{0.661209},{0.93247}};
	Knots[5] = {{-0.949108},{-0.741531},{-0.405845},{0},{0.405845},{0.741531},{0.949108}};
	Knots[6] = {{-0.96029},{-0.796666},{-0.525532},{-0.183435},{0.183435},{0.525532},{0.796666},{0.96029}};
	Knots[7] = {{-0.96816},{-0.836031},{-0.613371},{-0.324253},{0},{0.324253},{0.613371},{0.836031},{0.96816}};
	Knots[8] = {{-0.973907},{-0.865063},{-0.67941},{-0.433395},{-0.148874},{0.148874},{0.433395},{0.67941},{0.865063},{0.973907}};
	Knots[9] = {{-0.978229},{-0.887063},{-0.730152},{-0.519096},{-0.269543},{0},{0.269543},{0.519096},{0.730152},{0.887063},{0.978229}};
	Knots[10] = {{-0.981561},{-0.904117},{-0.769903},{-0.587318},{-0.367831},{-0.125233},{0.125233},{0.367831},{0.587318},{0.769903},{0.904117},{0.981561}};
	Knots[11] = {{-0.984183},{-0.917598},{-0.801578},{-0.642349},{-0.448493},{-0.230458},{0},{0.230458},{0.448493},{0.642349},{0.801578},{0.917598},{0.984183}};
	Knots[12] = {{-0.986284},{-0.928435},{-0.827201},{-0.687293},{-0.515249},{-0.319112},{-0.108055},{0.108055},{0.319112},{0.515249},{0.687293},{0.827201},{0.928435},{0.986284}};
	Knots[13] = {{-0.987993},{-0.937273},{-0.848207},{-0.724418},{-0.570972},{-0.394151},{-0.201194},{0},{0.201194},{0.394151},{0.570972},{0.724418},{0.848207},{0.937273},{0.987993}};
	Knots[14] = {{-0.989401},{-0.944575},{-0.865631},{-0.755404},{-0.617876},{-0.458017},{-0.281604},{-0.0950125},{0.0950125},{0.281604},{0.458017},{0.617876},{0.755404},{0.865631},{0.944575},{0.989401}};
	Knots[15] = {{-0.990575},{-0.950676},{-0.880239},{-0.781514},{-0.657671},{-0.512691},{-0.351232},{-0.178484},{0},{0.178484},{0.351232},{0.512691},{0.657671},{0.781514},{0.880239},{0.950676},{0.990575}};
	Knots[16] = {{-0.991565},{-0.955824},{-0.892602},{-0.803705},{-0.691687},{-0.559771},{-0.411751},{-0.251886},{-0.084775},{0.084775},{0.251886},{0.411751},{0.559771},{0.691687},{0.803705},{0.892602},{0.955824},{0.991565}};
	Knots[17] = {{-0.992407},{-0.960208},{-0.903156},{-0.822715},{-0.720966},{-0.600545},{-0.464571},{-0.316564},{-0.160359},{0},{0.160359},{0.316564},{0.464571},{0.600545},{0.720966},{0.822715},{0.903156},{0.960208},{0.992407}};
	Knots[18] = {{-0.993129},{-0.963972},{-0.912234},{-0.839117},{-0.746332},{-0.636054},{-0.510867},{-0.373706},{-0.227786},{-0.0765265},{0.0765265},{0.227786},{0.373706},{0.510867},{0.636054},{0.746332},{0.839117},{0.912234},{0.963972},{0.993129}};
	Knots[19] = {{-0.993752},{-0.967227},{-0.920099},{-0.853363},{-0.76844},{-0.667139},{-0.551619},{-0.424342},{-0.288021},{-0.145562},{0},{0.145562},{0.288021},{0.424342},{0.551619},{0.667139},{0.76844},{0.853363},{0.920099},{0.967227},{0.993752}};
	Knots[20] = {{-0.994295},{-0.97006},{-0.926957},{-0.865813},{-0.787817},{-0.694487},{-0.58764},{-0.469356},{-0.341936},{-0.20786},{-0.0697393},{0.0697393},{0.20786},{0.341936},{0.469356},{0.58764},{0.694487},{0.787817},{0.865813},{0.926957},{0.97006},{0.994295}};
	Knots[21] = {{-0.994769},{-0.972542},{-0.932971},{-0.876752},{-0.804888},{-0.718661},{-0.61961},{-0.509501},{-0.390301},{-0.264136},{-0.133257},{0},{0.133257},{0.264136},{0.390301},{0.509501},{0.61961},{0.718661},{0.804888},{0.876752},{0.932971},{0.972542},{0.994769}};
	Knots[22] = {{-0.995187},{-0.974729},{-0.938275},{-0.886416},{-0.820002},{-0.740124},{-0.648094},{-0.545421},{-0.433794},{-0.315043},{-0.191119},{-0.0640569},{0.0640569},{0.191119},{0.315043},{0.433794},{0.545421},{0.648094},{0.740124},{0.820002},{0.886416},{0.938275},{0.974729},{0.995187}};
	Knots[23] = {{-0.995557},{-0.976664},{-0.942975},{-0.894992},{-0.833443},{-0.759259},{-0.673566},{-0.577663},{-0.473003},{-0.361172},{-0.243867},{-0.122865},{0},{0.122865},{0.243867},{0.361172},{0.473003},{0.577663},{0.673566},{0.759259},{0.833443},{0.894992},{0.942975},{0.976664},{0.995557}};
	Knots[24] = {{-0.995886},{-0.978385},{-0.947159},{-0.902638},{-0.845446},{-0.776386},{-0.696427},{-0.606692},{-0.508441},{-0.403052},{-0.292005},{-0.176859},{-0.0592301},{0.0592301},{0.176859},{0.292005},{0.403052},{0.508441},{0.606692},{0.696427},{0.776386},{0.845446},{0.902638},{0.947159},{0.978385},{0.995886}};
	Knots[25] = {{-0.996179},{-0.979923},{-0.950901},{-0.909482},{-0.856208},{-0.791772},{-0.717013},{-0.632908},{-0.540552},{-0.441148},{-0.335994},{-0.226459},{-0.113973},{0},{0.113973},{0.226459},{0.335994},{0.441148},{0.540552},{0.632908},{0.717013},{0.791772},{0.856208},{0.909482},{0.950901},{0.979923},{0.996179}};
	Knots[26] = {{-0.996442},{-0.981303},{-0.954259},{-0.915633},{-0.865893},{-0.805641},{-0.735611},{-0.656651},{-0.56972},{-0.475874},{-0.376252},{-0.272062},{-0.164569},{-0.0550793},{0.0550793},{0.164569},{0.272062},{0.376252},{0.475874},{0.56972},{0.656651},{0.735611},{0.805641},{0.865893},{0.915633},{0.954259},{0.981303},{0.996442}};
	Knots[27] = {{-0.996679},{-0.982546},{-0.957286},{-0.92118},{-0.874638},{-0.818185},{-0.752463},{-0.678215},{-0.596282},{-0.507593},{-0.413153},{-0.314032},{-0.211352},{-0.106278},{0},{0.106278},{0.211352},{0.314032},{0.413153},{0.507593},{0.596282},{0.678215},{0.752463},{0.818185},{0.874638},{0.92118},{0.957286},{0.982546},{0.996679}};
	Knots[28] = {{-0.996893},{-0.983668},{-0.960022},{-0.9262},{-0.882561},{-0.829566},{-0.767777},{-0.69785},{-0.620526},{-0.536624},{-0.447034},{-0.352705},{-0.254637},{-0.15387},{-0.0514718},{0.0514718},{0.15387},{0.254637},{0.352705},{0.447034},{0.536624},{0.620526},{0.69785},{0.767777},{0.829566},{0.882561},{0.9262},{0.960022},{0.983668},{0.996893}};
	Knots[29] = {{-0.997087},{-0.984686},{-0.962504},{-0.930757},{-0.88976},{-0.83992},{-0.781733},{-0.715777},{-0.642707},{-0.563249},{-0.478194},{-0.388386},{-0.294718},{-0.198121},{-0.0995553},{0},{0.0995553},{0.198121},{0.294718},{0.388386},{0.478194},{0.563249},{0.642707},{0.715777},{0.781733},{0.83992},{0.88976},{0.930757},{0.962504},{0.984686},{0.997087}};
	Knots[30] = {{-0.997264},{-0.985612},{-0.964762},{-0.934906},{-0.896321},{-0.849368},{-0.794484},{-0.732182},{-0.663044},{-0.587716},{-0.5069},{-0.421351},{-0.331869},{-0.239287},{-0.144472},{-0.0483077},{0.0483077},{0.144472},{0.239287},{0.331869},{0.421351},{0.5069},{0.587716},{0.663044},{0.732182},{0.794484},{0.849368},{0.896321},{0.934906},{0.964762},{0.985612},{0.997264}};
	Knots[31] = {{-0.997425},{-0.986456},{-0.966823},{-0.938694},{-0.902317},{-0.85801},{-0.806162},{-0.74723},{-0.681732},{-0.610242},{-0.53339},{-0.45185},{-0.366339},{-0.277609},{-0.186439},{-0.0936311},{0},{0.0936311},{0.186439},{0.277609},{0.366339},{0.45185},{0.53339},{0.610242},{0.681732},{0.74723},{0.806162},{0.85801},{0.902317},{0.938694},{0.966823},{0.986456},{0.997425}};
	Knots[32] = {{-0.997572},{-0.987228},{-0.968708},{-0.942162},{-0.90781},{-0.865935},{-0.816884},{-0.761065},{-0.698939},{-0.631022},{-0.557876},{-0.480107},{-0.398359},{-0.313311},{-0.225667},{-0.136152},{-0.0455098},{0.0455098},{0.136152},{0.225667},{0.313311},{0.398359},{0.480107},{0.557876},{0.631022},{0.698939},{0.761065},{0.816884},{0.865935},{0.90781},{0.942162},{0.968708},{0.987228},{0.997572}};
	Knots[33] = {{-0.997707},{-0.987936},{-0.970438},{-0.945345},{-0.912854},{-0.873219},{-0.82675},{-0.77381},{-0.714815},{-0.650224},{-0.580545},{-0.506323},{-0.428138},{-0.346602},{-0.262353},{-0.176051},{-0.0883713},{0},{0.0883713},{0.176051},{0.262353},{0.346602},{0.428138},{0.506323},{0.580545},{0.650224},{0.714815},{0.77381},{0.82675},{0.873219},{0.912854},{0.945345},{0.970438},{0.987936},{0.997707}};
	Knots[34] = {{-0.99783},{-0.988586},{-0.972028},{-0.948273},{-0.917498},{-0.87993},{-0.835847},{-0.785576},{-0.729489},{-0.668001},{-0.601568},{-0.53068},{-0.455864},{-0.377673},{-0.296685},{-0.213501},{-0.128736},{-0.0430182},{0.0430182},{0.128736},{0.213501},{0.296685},{0.377673},{0.455864},{0.53068},{0.601568},{0.668001},{0.729489},{0.785576},{0.835847},{0.87993},{0.917498},{0.948273},{0.972028},{0.988586},{0.99783}};
	Knots[35] = {{-0.997945},{-0.989186},{-0.973493},{-0.950972},{-0.921781},{-0.886125},{-0.844253},{-0.796459},{-0.743079},{-0.684486},{-0.621093},{-0.553342},{-0.481711},{-0.406701},{-0.328837},{-0.248668},{-0.166754},{-0.0836704},{0},{0.0836704},{0.166754},{0.248668},{0.328837},{0.406701},{0.481711},{0.553342},{0.621093},{0.684486},{0.743079},{0.796459},{0.844253},{0.886125},{0.921781},{0.950972},{0.973493},{0.989186},{0.997945}};
	Knots[36] = {{-0.99805},{-0.989739},{-0.974846},{-0.953466},{-0.925741},{-0.891856},{-0.852035},{-0.806544},{-0.755686},{-0.699799},{-0.639254},{-0.574456},{-0.505835},{-0.433847},{-0.358972},{-0.281709},{-0.20257},{-0.122084},{-0.0407851},{0.0407851},{0.122084},{0.20257},{0.281709},{0.358972},{0.433847},{0.505835},{0.574456},{0.639254},{0.699799},{0.755686},{0.806544},{0.852035},{0.891856},{0.925741},{0.953466},{0.974846},{0.989739},{0.99805}};
	Knots[37] = {{-0.998147},{-0.990252},{-0.976099},{-0.955775},{-0.929409},{-0.897167},{-0.859253},{-0.815906},{-0.767401},{-0.714044},{-0.656173},{-0.594153},{-0.528377},{-0.459261},{-0.38724},{-0.312772},{-0.236326},{-0.158385},{-0.0794438},{0},{0.0794438},{0.158385},{0.236326},{0.312772},{0.38724},{0.459261},{0.528377},{0.594153},{0.656173},{0.714044},{0.767401},{0.815906},{0.859253},{0.897167},{0.929409},{0.955775},{0.976099},{0.990252},{0.998147}};
	Knots[38] = {{-0.998238},{-0.990726},{-0.97726},{-0.957917},{-0.932813},{-0.902099},{-0.86596},{-0.824612},{-0.778306},{-0.727318},{-0.671957},{-0.612554},{-0.549467},{-0.483076},{-0.413779},{-0.341994},{-0.268152},{-0.192698},{-0.116084},{-0.0387724},{0.0387724},{0.116084},{0.192698},{0.268152},{0.341994},{0.413779},{0.483076},{0.549467},{0.612554},{0.671957},{0.727318},{0.778306},{0.824612},{0.86596},{0.902099},{0.932813},{0.957917},{0.97726},{0.990726},{0.998238}};
	Knots[39] = {{-0.998322},{-0.991167},{-0.978339},{-0.959907},{-0.935977},{-0.906686},{-0.872202},{-0.832721},{-0.788471},{-0.739705},{-0.686702},{-0.629765},{-0.569221},{-0.505417},{-0.438717},{-0.369505},{-0.298176},{-0.22514},{-0.150813},{-0.0756233},{0},{0.0756233},{0.150813},{0.22514},{0.298176},{0.369505},{0.438717},{0.505417},{0.569221},{0.629765},{0.686702},{0.739705},{0.788471},{0.832721},{0.872202},{0.906686},{0.935977},{0.959907},{0.978339},{0.991167},{0.998322}};
	Knots[40] = {{-0.9984},{-0.991577},{-0.979343},{-0.961759},{-0.938924},{-0.91096},{-0.878021},{-0.840286},{-0.797962},{-0.75128},{-0.700495},{-0.645883},{-0.587745},{-0.526396},{-0.462172},{-0.395424},{-0.326516},{-0.255825},{-0.183737},{-0.110645},{-0.0369489},{0.0369489},{0.110645},{0.183737},{0.255825},{0.326516},{0.395424},{0.462172},{0.526396},{0.587745},{0.645883},{0.700495},{0.75128},{0.797962},{0.840286},{0.878021},{0.91096},{0.938924},{0.961759},{0.979343},{0.991577},{0.9984}};
	Knots[41] = {{-0.998472},{-0.99196},{-0.980278},{-0.963487},{-0.941672},{-0.914948},{-0.883454},{-0.847354},{-0.806836},{-0.762112},{-0.713414},{-0.660997},{-0.605134},{-0.546116},{-0.484251},{-0.419861},{-0.353283},{-0.284862},{-0.214956},{-0.14393},{-0.072153},{0},{0.072153},{0.14393},{0.214956},{0.284862},{0.353283},{0.419861},{0.484251},{0.546116},{0.605134},{0.660997},{0.713414},{0.762112},{0.806836},{0.847354},{0.883454},{0.914948},{0.941672},{0.963487},{0.980278},{0.99196},{0.998472}};
	Knots[42] = {{-0.99854},{-0.992316},{-0.981152},{-0.9651},{-0.94424},{-0.918675},{-0.888534},{-0.853967},{-0.815145},{-0.772261},{-0.725531},{-0.675186},{-0.621477},{-0.564672},{-0.505054},{-0.44292},{-0.378579},{-0.312352},{-0.244569},{-0.175568},{-0.105692},{-0.0352892},{0.0352892},{0.105692},{0.175568},{0.244569},{0.312352},{0.378579},{0.44292},{0.505054},{0.564672},{0.621477},{0.675186},{0.725531},{0.772261},{0.815145},{0.853967},{0.888534},{0.918675},{0.94424},{0.9651},{0.981152},{0.992316},{0.99854}};
	Knots[43] = {{-0.998604},{-0.99265},{-0.981969},{-0.966608},{-0.946642},{-0.922164},{-0.893292},{-0.860162},{-0.822934},{-0.781784},{-0.736909},{-0.688522},{-0.636853},{-0.58215},{-0.524673},{-0.464695},{-0.402503},{-0.338393},{-0.27267},{-0.205647},{-0.137645},{-0.068987},{0},{0.068987},{0.137645},{0.205647},{0.27267},{0.338393},{0.402503},{0.464695},{0.524673},{0.58215},{0.636853},{0.688522},{0.736909},{0.781784},{0.822934},{0.860162},{0.893292},{0.922164},{0.946642},{0.966608},{0.981969},{0.99265},{0.998604}};
	Knots[44] = {{-0.998663},{-0.992962},{-0.982734},{-0.968021},{-0.948892},{-0.925434},{-0.897753},{-0.865975},{-0.830247},{-0.79073},{-0.747605},{-0.70107},{-0.651335},{-0.598628},{-0.54319},{-0.485274},{-0.425143},{-0.363073},{-0.299346},{-0.234253},{-0.168091},{-0.101162},{-0.0337722},{0.0337722},{0.101162},{0.168091},{0.234253},{0.299346},{0.363073},{0.425143},{0.485274},{0.54319},{0.598628},{0.651335},{0.70107},{0.747605},{0.79073},{0.830247},{0.865975},{0.897753},{0.925434},{0.948892},{0.968021},{0.982734},{0.992962},{0.998663}};
	Knots[45] = {{-0.998719},{-0.993255},{-0.983451},{-0.969347},{-0.951004},{-0.928503},{-0.901941},{-0.871436},{-0.83712},{-0.799144},{-0.757673},{-0.712889},{-0.664988},{-0.614179},{-0.560684},{-0.504738},{-0.446584},{-0.386478},{-0.324681},{-0.261465},{-0.197106},{-0.131885},{-0.0660869},{0},{0.0660869},{0.131885},{0.197106},{0.261465},{0.324681},{0.386478},{0.446584},{0.504738},{0.560684},{0.614179},{0.664988},{0.712889},{0.757673},{0.799144},{0.83712},{0.871436},{0.901941},{0.928503},{0.951004},{0.969347},{0.983451},{0.993255},{0.998719}};
	Knots[46] = {{-0.998771},{-0.99353},{-0.984125},{-0.970592},{-0.952988},{-0.931387},{-0.905879},{-0.876572},{-0.843588},{-0.807066},{-0.767159},{-0.724034},{-0.677872},{-0.628867},{-0.577225},{-0.523161},{-0.466903},{-0.408686},{-0.348756},{-0.287362},{-0.224764},{-0.161222},{-0.0970047},{-0.0323802},{0.0323802},{0.0970047},{0.161222},{0.224764},{0.287362},{0.348756},{0.408686},{0.466903},{0.523161},{0.577225},{0.628867},{0.677872},{0.724034},{0.767159},{0.807066},{0.843588},{0.876572},{0.905879},{0.931387},{0.952988},{0.970592},{0.984125},{0.99353},{0.998771}};
	Knots[47] = {{-0.99882},{-0.993789},{-0.984758},{-0.971762},{-0.954854},{-0.9341},{-0.909586},{-0.881408},{-0.849682},{-0.814534},{-0.776107},{-0.734554},{-0.690044},{-0.642755},{-0.592878},{-0.540613},{-0.486172},{-0.429773},{-0.371644},{-0.312018},{-0.251135},{-0.189242},{-0.126586},{-0.0634207},{0},{0.0634207},{0.126586},{0.189242},{0.251135},{0.312018},{0.371644},{0.429773},{0.486172},{0.540613},{0.592878},{0.642755},{0.690044},{0.734554},{0.776107},{0.814534},{0.849682},{0.881408},{0.909586},{0.9341},{0.954854},{0.971762},{0.984758},{0.993789},{0.99882}};
	Knots[48] = {{-0.998866},{-0.994032},{-0.985354},{-0.972864},{-0.956611},{-0.936657},{-0.913079},{-0.885968},{-0.85543},{-0.821582},{-0.784556},{-0.744494},{-0.701552},{-0.655896},{-0.607703},{-0.557158},{-0.504458},{-0.449806},{-0.393414},{-0.3355},{-0.276288},{-0.216007},{-0.154891},{-0.0931747},{-0.0310983},{0.0310983},{0.0931747},{0.154891},{0.216007},{0.276288},{0.3355},{0.393414},{0.449806},{0.504458},{0.557158},{0.607703},{0.655896},{0.701552},{0.744494},{0.784556},{0.821582},{0.85543},{0.885968},{0.913079},{0.936657},{0.956611},{0.972864},{0.985354},{0.994032},{0.998866}};

      }
    else
      {
	throw OomphLibError("Variable order knots of this dimension are not implemented.",
			    "GaussKnots::GaussKnots", OOMPH_EXCEPTION_LOCATION);
      }
  }

  template<unsigned DIM>
  const GaussKnots<DIM> VariableGauss<DIM>::Knots = VariableGauss<DIM>::Knots;
  template<unsigned DIM> const GaussWeights<DIM> VariableGauss<DIM>::Weights();

}
